<?xml version="1.0"?>
<opencv_storage>
<stage2>
  <maxWeakCount>10</maxWeakCount>
  <stageThreshold>-2.0954320430755615e+00</stageThreshold>
  <weakClassifiers>
    <_>
      <internalNodes>
        0 -1 598280 4.8283748328685760e-02</internalNodes>
      <leafValues>
        -8.5066163539886475e-01 3.4837419564275106e-17</leafValues></_>
    <_>
      <internalNodes>
        0 -1 361845 -5.5025082081556320e-02</internalNodes>
      <leafValues>
        4.5559376478195190e-01 -4.8634749650955200e-01</leafValues></_>
    <_>
      <internalNodes>
        0 -1 699973 2.7720298385247588e-04</internalNodes>
      <leafValues>
        -6.8586522340774536e-01 2.4276022613048553e-01</leafValues></_>
    <_>
      <internalNodes>
        0 -1 34612 -1.4251714674173854e-05</internalNodes>
      <leafValues>
        3.1204363703727722e-01 -5.0481301546096802e-01</leafValues></_>
    <_>
      <internalNodes>
        0 -1 165959 -1.1119496077299118e-01</internalNodes>
      <leafValues>
        2.3548512160778046e-01 -7.4491399526596069e-01</leafValues></_>
    <_>
      <internalNodes>
        0 -1 2314 -1.2348343261692207e-05</internalNodes>
      <leafValues>
        2.4330399930477142e-01 -5.1077741384506226e-01</leafValues></_>
    <_>
      <internalNodes>
        0 -1 700280 -4.9782352289184928e-04</internalNodes>
      <leafValues>
        2.8533396124839783e-01 -5.0306051969528198e-01</leafValues></_>
    <_>
      <internalNodes>
        0 -1 12451 1.8215092131868005e-03</internalNodes>
      <leafValues>
        -2.8746834397315979e-01 5.2529853582382202e-01</leafValues></_>
    <_>
      <internalNodes>
        0 -1 351454 5.8948039077222347e-04</internalNodes>
      <leafValues>
        1.7607501149177551e-01 -8.1234127283096313e-01</leafValues></_>
    <_>
      <internalNodes>
        0 -1 308450 -8.1732021644711494e-03</internalNodes>
      <leafValues>
        7.6966899633407593e-01 -2.2345876693725586e-01</leafValues></_></weakClassifiers></stage2>
</opencv_storage>
